{"W": [[-0.01038863230496645, 0.0223113801330328, 0.05187441036105156, -0.05096361041069031, -0.03058238886296749, -0.015617634169757366, 0.0363113172352314, -0.03441610559821129, 0.011373027227818966, 0.059483759105205536, 0.006404900457710028, 0.04193028435111046, 0.07630350440740585, -0.005573701113462448, 1.0522247976041399e-05, 0.030370421707630157, 0.01445056963711977, 0.02003529667854309, 0.002994615351781249, -0.0401969738304615, 0.04930711165070534, 0.03575163707137108, 0.0016149547882378101, 0.025867553427815437, 0.00924769975244999, 0.012719237245619297, -0.024753093719482422, -0.060015659779310226, -0.03698981553316116, 0.04666861146688461, 0.04946817085146904, -0.015398403629660606, 0.02622533030807972, 0.04523969441652298, -0.011041875928640366, -0.07039713859558105, -0.007048643659800291, 0.06560004502534866, -0.01564982160925865, 0.06157681718468666, 0.0406997986137867, -0.0296366848051548, 0.02913658879697323, 0.02962866798043251, -0.027315877377986908, -0.013673534616827965, 0.014979962259531021, 0.044791772961616516, -0.0037229012232273817, 0.009145631454885006, -0.015659771859645844, 0.04763888567686081, 0.0112734604626894, 0.022687377408146858, -0.016080275177955627, -0.041265472769737244, 0.016468513756990433, 0.03233387693762779, -0.026660442352294922, 0.0213061161339283, -0.023632066324353218, 0.0781620591878891, -0.05267532542347908, 0.016193246468901634, 0.009556587785482407, -0.02439982071518898, -0.0007083344389684498, 0.0041504353284835815, -0.0059020500630140305, 0.020788513123989105, -0.02227802760899067, -0.026226358488202095, 0.0247793011367321, 0.009438135661184788, 0.021521028131246567, -0.06428584456443787, -0.013010550290346146, -0.04185428097844124, -0.0317024402320385, 0.004333500750362873, -0.05738411098718643, 0.0034506660886108875, 0.022590452805161476, 0.012210880406200886, 0.030229493975639343, 0.030834082514047623, -0.005844430066645145, 0.010708916932344437, 0.02951810322701931, 0.009630303829908371, -0.010687241330742836, 0.06566997617483139, 0.03367763012647629, 0.02908271737396717, -0.03408029302954674, 0.018764590844511986, -0.03485560044646263, -0.0027121426537632942, -0.01270265132188797, -0.059609197080135345, -0.036281418055295944, 0.025864938274025917, 0.01668696105480194, -0.030666224658489227, 0.0016694448422640562, -0.03442122042179108, 0.01949208974838257, 0.00607386976480484, 0.011417364701628685, 0.012432095594704151, -0.012474585324525833, 0.011183730326592922, -0.005926491692662239, -0.017470646649599075, 0.012235147878527641, 0.032071687281131744, -0.03410166874527931, 0.006801503710448742, 0.008113059215247631, -0.026466719806194305, -0.01661953702569008, -0.024101588875055313, 0.0031095431186258793, -0.010655194520950317, -0.01880478672683239, 0.03087453544139862, -0.0037554376758635044, 0.020664162933826447, 0.015394335612654686, -0.03971707075834274, -0.03371967747807503, 0.01659834012389183, -0.003790209535509348, -0.005568806082010269, 0.007888355292379856, 0.019562501460313797, 0.004763258621096611, -0.02257560007274151, -0.0068891048431396484, -0.012678984552621841, -0.028460325673222542, -0.03127417713403702, 0.0024162582121789455, 0.013702485710382462, 0.01375929731875658, 0.03997480869293213, -0.005091963801532984, -0.022663695737719536, -0.01885881833732128, -0.008658615872263908, -0.04389241337776184, 0.04079040512442589, -0.03785474970936775, -0.00434057367965579, 0.0055140163749456406, 0.05487322807312012, -0.0005882187397219241, 0.017416859045624733, -0.03586301580071449, 0.011134760454297066, -0.006505562923848629, 0.023557916283607483, -0.02161409705877304, -0.016103656962513924, 0.0035508801229298115, 0.027753841131925583, 0.01862812601029873, 0.041635122150182724, -0.008639367297291756, 0.0028922329656779766, -0.02065984532237053, -0.014874381944537163, -0.044473178684711456, -0.005403085146099329, -0.02831209823489189, -0.05486609414219856, 0.0019628286827355623, -0.0014618677087128162, -0.041771989315748215, 0.04294322431087494, 0.0001206703600473702, 0.014061767607927322, -0.026741603389382362, -0.023003479465842247, -0.008790373802185059, 0.052298884838819504, 0.03371451422572136, 0.03302975371479988, -0.0032790855038911104, 0.03935885801911354, 0.045767273753881454, -0.02143351174890995, -0.035867948085069656, 0.01716618426144123, -0.012741275131702423, -0.01011630054563284, 0.008421209640800953, 0.005259403958916664, 0.030011799186468124, -0.0113770617172122, 0.052399247884750366, -0.02411467395722866, -0.012749752029776573, -0.017609715461730957, -0.010911836288869381, -0.032461680471897125, 0.017688624560832977, -0.029177121818065643, 0.050580643117427826, 0.00991732906550169, -0.00515391631051898, -0.04452529549598694, -0.012352794408798218, -0.018151916563510895, 0.02605098858475685, -0.036611273884773254, -0.01905379444360733, -0.06216602399945259, -0.03073202073574066, -0.010839859955012798, -0.00259622884914279, 0.0072390432469546795, -0.012950393371284008, -0.017057225108146667, -0.0024869833141565323, 0.013379218056797981, 0.026689257472753525, 0.010130456648766994, -0.021167967468500137, -0.01124605629593134, -0.06435583531856537, 0.03274839371442795, -0.011841434054076672, -0.009352213703095913, -0.02296520210802555, -0.00944992620497942, 0.020337508991360664, -0.000966444902587682, -0.0489983856678009, -0.01885351724922657, -0.02022317424416542, 0.010694338008761406, -0.01607275940477848, 0.03284744918346405, 0.026073912158608437, -0.0435417965054512, 0.0054292697459459305, -0.01196286641061306, 0.0030373260378837585, 0.019788963720202446, -0.006970914546400309, 0.017476437613368034, 0.028989402577280998, -0.02209409512579441, -0.004703911487013102, -0.022051110863685608], [0.02140801213681698, 0.04826420918107033, 0.004757439251989126, -0.034044697880744934, 0.007173304911702871, -0.005635891109704971, 0.0020456567872315645, -0.009017979726195335, 0.039978478103876114, 0.01683867909014225, -0.01601525768637657, 0.058345548808574677, 0.028516564518213272, -0.017049629241228104, 0.029539084061980247, 0.06338456273078918, 0.0358193963766098, -0.024945925921201706, -0.007698682136833668, -0.03271130844950676, 0.009113937616348267, -0.0001908388512674719, 0.02373698726296425, 0.006828116253018379, 0.029575586318969727, -0.02462809905409813, -0.0005831466987729073, -0.03651927039027214, -0.023943033069372177, 0.035420697182416916, 0.02737720124423504, 0.025102796033024788, 0.008190399967133999, 0.00941101461648941, 0.034466903656721115, -0.030299115926027298, 0.009970991872251034, 0.029159171506762505, -0.001583104720339179, 0.0475667342543602, 0.053384967148303986, -0.060391709208488464, -0.012475143186748028, 0.029921652749180794, -0.011975295841693878, 0.010500059463083744, 0.02225988730788231, 0.07138194143772125, 0.009374263696372509, -0.022198040038347244, -0.052680350840091705, 0.020312707871198654, 0.04016546905040741, 0.002799025271087885, 0.016890812665224075, -0.018635770305991173, -0.012761369347572327, 0.07134511321783066, -0.009692061692476273, -0.018712373450398445, 0.015469042584300041, 0.03185559809207916, -0.020217755809426308, -0.04908090457320213, 0.04328412935137749, -0.05153084918856621, -0.015023582614958286, -0.023534594103693962, 0.025079624727368355, 0.047460343688726425, 0.011330101639032364, -0.06306692957878113, 0.0005439716624096036, -0.014630046673119068, 0.04513312503695488, -0.032985348254442215, 0.01989874802529812, -0.06958711892366409, -0.015522225759923458, -0.032686565071344376, -0.02660873532295227, -0.03476547449827194, 0.048090096563100815, -0.03486904501914978, 0.053570300340652466, 0.0030126082710921764, -0.03872201591730118, -0.013379042968153954, 0.002086933236569166, -0.0226096473634243, 0.02266802079975605, 0.032571543008089066, 0.027014875784516335, 0.005941733252257109, -0.06433707475662231, -0.003114018589258194, -0.02227075584232807, 0.02637333981692791, 0.027941282838582993, -0.020517276600003242, -0.00805716309696436, 0.00745064951479435, -0.022195620462298393, -0.006559900939464569, 0.0026790271513164043, -0.03711912781000137, -0.010884037241339684, 0.03440278396010399, 0.038558732718229294, 0.028779594227671623, 0.004644566681236029, 0.0393458791077137, 0.0356774777173996, -0.044487591832876205, -0.0020570799242705107, 0.005444763228297234, -0.05326581001281738, -0.020865336060523987, -0.010499944910407066, 0.001235815929248929, 0.016984540969133377, 0.008983582258224487, 0.024972381070256233, -0.0384058803319931, 0.011975358240306377, 0.05242141708731651, -0.02862386405467987, 0.04775738716125488, -0.011496171355247498, -0.0037586770486086607, -0.023876070976257324, 0.05182331055402756, 0.0077251652255654335, 0.014668495394289494, -0.02447737753391266, 0.01415122952312231, -0.06293892860412598, 0.0030417433008551598, -0.03485732525587082, -0.0416443906724453, 0.007160001900047064, -0.06823553144931793, -0.02571946755051613, -0.026345573365688324, 0.03413146734237671, 0.06321334838867188, 0.03790559992194176, -0.005244062282145023, 0.003968849778175354, 0.006635361351072788, -0.012769089080393314, 0.025089459493756294, -0.01014070212841034, -0.05013652145862579, 0.026461565867066383, 0.029925204813480377, 0.009760209359228611, 0.014998075552284718, -0.05892367288470268, 0.01263437606394291, 0.015647949650883675, 0.04400396719574928, 0.011858582496643066, -0.057863738387823105, 0.04177048057317734, 0.006329456344246864, 0.02251332253217697, 0.010383890941739082, -0.039177216589450836, 0.023231379687786102, 0.010806004516780376, 0.024228645488619804, -0.013952543959021568, -0.04713767394423485, -0.06832423061132431, -0.01625163108110428, -0.024373183026909828, -0.036782003939151764, -0.015615674667060375, 0.009290086105465889, 0.001967694377526641, 0.048694171011447906, -0.003699933411553502, 0.006567986216396093, 0.03147163242101669, 0.020270755514502525, 0.0075139994733035564, 0.009356752969324589, 0.014217330142855644, 0.009257408790290356, 0.05800798535346985, 0.012297596782445908, -0.06128052622079849, -0.02755185030400753, -0.028336074203252792, -0.03448294475674629, 0.04096812382340431, 0.03652264550328255, 0.0019398762378841639, 0.014018192887306213, 0.0054190754890441895, -0.0016409661620855331, -0.0014740305487066507, -0.050077229738235474, -0.03219471871852875, 0.007318183779716492, -0.008014433085918427, -0.05826253816485405, 0.023257289081811905, 0.043151915073394775, 0.012467889115214348, -0.0747876986861229, 0.03155536577105522, 0.011879706755280495, 0.04259806126356125, -0.008033031597733498, -0.00792667455971241, -0.02949114330112934, 0.000896983954589814, 0.016779517754912376, -0.10211824625730515, -0.03918938338756561, -0.0288875550031662, -0.032900769263505936, -0.029896482825279236, 0.04740476980805397, -0.002694883616641164, 0.01627483405172825, -0.0035037691704928875, 0.015587409026920795, -0.02733079344034195, 0.058815497905015945, -0.04859384894371033, 0.02092343382537365, 0.015244510024785995, -0.042417578399181366, -0.018920710310339928, -0.029157646000385284, -0.04085433483123779, 0.021820416674017906, 0.011718487367033958, 0.020844237878918648, 0.013727436773478985, 0.024041349068284035, -0.009005862288177013, -0.012271585874259472, 0.04862454533576965, -0.0036891973577439785, 0.030869878828525543, -0.018671389669179916, 0.019507402554154396, 0.021867625415325165, -0.015942411497235298, -0.008739969693124294, -0.030241137370467186, 0.0029350121039897203]], "b": [0.046793386340141296, -0.0026520551182329655]}